{
    "find": {
        "filter": {"total_weight_metric": {"$gt": 0}
    },
        "sort": {
            "$vector": [-0.009876498,0.0015304419,0.015627984,-0.05478792,-0.0064124567,-0.012935652,0.0096481,-0.013551636,0.028625926,0.00786244,0.03180966,-0.006592407,0.0038308632,0.010132581,0.014077644,0.044683024,-0.05990958,-0.0024206764,-0.051188916,0.036488365,0.036100782,0.024334807,0.03992126,-0.04360332,0.0344397,-0.019573046,-0.013973827,0.010617062,0.031200599,-0.041582342,0.058746826,-0.028875088,-0.0013963445,-0.038813878,0.05520319,0.004097328,0.023615004,0.018922457,-0.005668432,-0.0039381413,-0.041499287,-0.044987556,0.0113645485,0.027227852,0.030010158,-0.018728664,-0.03441202,-0.038620085,0.04842045,0.027836913,-0.031781975,-0.0027788465,0.04822666,0.07020827,0.019337727,0.023933379,-0.035159502,0.019932946,0.018548714,0.0053327554,-0.0023185892,-0.018770192,0.03839861,0.0054954025,-0.03197577,-0.060020316,0.012236615,0.03150513,0.0004663133,0.021469444,0.045928832,0.011842108,-0.01285952,0.016721528,0.008720664,0.01996063,0.0027061745,0.018188814,0.014548283,-0.008035469,0.020237477,0.011011569,-0.019656101,0.009606573,0.031172914,-0.012845677,-0.09047343,0.006242888,0.0068692532,-0.03651605,-0.011177677,-0.0035540168,0.015295768,0.051714923,0.023324316,-0.02751854,-0.0025469877,-0.018036548,0.002434519,-0.007225693,0.010367901,0.009717312,-0.0013331888,0.017911967,0.02245225,0.01864561,-0.031698924,0.023545794,-0.012499618,0.03330463,-0.0057860916,-0.020638905,-0.017552067,0.02948415,0.044738393,0.015115818,0.109963425,-0.103540584,0.03394138,-0.07131565,0.027352432,0.030508483,0.01250654,-0.022895204,0.031643555,-0.021012649,-0.0061183074,-0.009440465,-0.022895204,0.000064507396,-0.031671237,0.0049347887,0.033027787,0.009606573,-0.010790092,-0.00834,-0.025151502,0.004512598,-0.058636084,0.041610025,0.011323021,0.024044117,0.006367469,0.0005147614,-0.016223203,-0.028266026,-0.016832266,0.040281165,0.022770623,0.028155288,-0.011537577,0.005633826,-0.008035469,0.0037028217,-0.05368053,-0.037734177,-0.015794093,-0.019628415,-0.031339023,-0.0017173133,0.024182541,-0.004972855,0.011309179,-0.025386823,-0.025525246,0.008630689,-0.0078416765,-0.017579751,-0.052739255,0.019254673,0.026674159,0.0155449305,0.013648531,-0.012395801,-0.020625062,0.024071801,-0.022438407,0.010367901,-0.022341512,0.002041743,-0.020099055,0.05074596,-0.025594458,0.01882556,0.0151435025,-0.05913441,0.024196383,0.0053535188,0.002958797,-0.013793876,-0.006087162,-0.009419702,0.02917962,0.038149446,0.027670806,-0.07735091,0.018479504,0.030923752,-0.013544714,0.040751804,-0.035104133,-0.0029414939,0.0103056105,-0.011468366,0.015101976,0.013565478,-0.02394722,0.047008533,-0.017399801,-0.02501308,0.069765314,-0.0013626037,-0.0019361951,0.002948415,-0.0054884814,0.007550988,0.050884385,0.012631121,-0.008769113,0.061072335,-0.008118523,0.010056448,0.0876496,0.012312748,-0.010236398,0.0834969,0.011198441,-0.014188383,0.0013920187,-0.05650437,-0.042911205,0.017953495,0.007654805,-0.0042184484,-0.023836482,0.026106624,-0.033526108,-0.0041907635,-0.034965713,-0.051604185,-0.03765112,0.009516598,-0.029594889,-0.039229147,-0.020735802,-0.013074075,0.024750076,-0.009620415,0.025635984,0.015171187,0.005228938,-0.037485015,-0.037485015,-0.06882404,0.02733859,-0.010499403,0.025483718,0.0024812366,0.020860383,-0.008125444,-0.05110586,-0.0036336102,-0.042495936,-0.049860053,-0.06611094,0.0051908717,0.029318042,-0.014257594,0.013406291,-0.044378493,-0.006665079,0.01512966,0.018548714,-0.020929594,-0.031228283,0.04133318,-0.0012440789,0.018922457,0.025954358,0.026771056,-0.04246825,-0.013558556,-0.0048932615,-0.028487504,-0.011323021,0.024154855,0.010928515,-0.045901146,0.0071841665,0.060906228,-0.012776465,-0.01078317,0.0013063693,0.03294473,0.016181678,0.022922888,0.020292846,-0.04014274,0.0005610467,-0.057251852,0.031643555,0.030120898,0.00529815,0.028376766,-0.009364332,0.045292083,0.0137385065,-0.008028548,0.0036301496,-0.016666159,0.008360764,0.019683786,-0.0008365955,0.007461013,0.014437544,-0.050939754,-0.013288631,0.057251852,0.035990044,-0.022742938,0.012554988,-0.022646042,0.03413517,0.032418724,-0.015531088,-0.0026577262,0.001476803,-0.02679874,0.014271436,0.033138525,-0.0954013,-0.027906125,-0.0035713196,-0.0086445315,0.035325613,0.032252617,0.009260515,0.055424668,-0.0058864485,0.04169308,-0.06694148,0.011329942,-0.0028411371,-0.012070507,0.04603957,0.022604516,0.045153663,-0.02411333,0.030813014,0.0142299095,0.043077312,0.010644747,-0.0022130415,0.021483287,0.021469444,-0.050912067,-0.016749213,0.014963552,0.032529462,-0.0017752781,0.01411225,0.043077312,0.045070607,0.010284847,0.046842426,0.01996063,-0.026577262,-0.011399154,-0.01458981,0.000970693,0.010374822,0.034744233,0.0456243,0.01721985,-0.03471655,0.030563852,0.04277278,0.069488466,0.023088997,0.045762725,0.02834908,0.009689627,0.035270244,-0.011011569,0.028266026,0.0025002698,-0.015655668,0.02703406,-0.0035003778,-0.019822208,0.05143808,-0.020375902,-0.01709527,-0.07640963,0.06323174,0.025123818,0.01888093,0.07962105,0.018174972,-0.0026715687,0.02245225,-0.03936757,-0.04174845,0.040419586,-0.003072996,0.009184382,-0.032252617,-0.013828482,0.03255715,-0.0025954358,-0.02625889,0.033498425,0.032861676,-0.0020469336,-0.012603437,-0.02268757,0.030591536,-0.0036959006,0.03180966,0.0109562,-0.03311084,-0.038204815,-0.011724449,0.015392665,-0.022327669,0.0015330374,0.045070607,0.018894773,0.03513182,-0.02304747,-0.0022978259,-0.01994679,-0.035934675,0.03704206,-0.03419054,-0.016292416,0.007301826,0.0037962573,-0.0051839505,0.01369698,-0.02412717,-0.005104357,0.015212715,-0.02174629,-0.041582342,0.018576398,-0.034938026,-0.042274456,0.008582241,-0.019614574,0.010513245,-0.03554709,-0.013496266,-0.05985421,0.01578025,-0.053846642,0.0120774275,-0.0033273487,0.06489281,0.018147288,0.036599107,0.046122625,0.015711037,0.04825434,0.050967436,-0.006007569,0.02620352,0.034633495,0.04263436,-0.040170424,-0.008748349,-0.01996063,0.046177994,0.0049832365,-0.03521487,-0.014894341,0.024362491,-0.0035297927,0.00069298135,-0.07856903,-0.032003455,-0.033249263,-0.030951437,-0.016167834,0.011980532,0.114503704,-0.038315553,0.0011895747,-0.019503836,-0.015171187,0.033193894,0.00087812246,0.02333816,-0.015558773,0.006080241,0.03399675,0.027504697,0.020099055,-0.0009897262,0.007897046,-0.07242304,-0.023864167,-0.035325613,0.06699685,0.025539089,0.020375902,-0.010873145,-0.01863177,0.05044143,-0.0031162533,-0.017635122,0.0034467387,-0.00045593156,-0.002358386,-0.030951437,-0.01369698,-0.021649396,0.029511835,-0.008118523,-0.011440681,-0.014119171,0.021012649,-0.024763918,-0.017316747,-0.02012674,-0.02369806,-0.007557909,-0.10237783,-0.013004864,-0.06201361,-0.03477192,-0.032058824,0.018451817,-0.025386823,-0.0024518217,-0.004768681,-0.010153345,0.01090083,-0.029401097,-0.01440986,-0.0015339026,0.017856598,-0.0041665398,-0.0031249046,-0.008976747,0.040696435,0.00082621374,-0.021178756,-0.013558556,-0.02245225,0.012554988,-0.042662043,0.03870314,0.0037651123,0.04894646,-0.001030388,0.01143376,-0.015711037,0.017607436,-0.008769113,0.004003892,0.0058933697,0.019337727,-0.043686375,-0.0129841,0.012465013,0.0046787057,-0.020417428,0.02382264,0.0034052117,-0.012118955,0.03828787,-0.031754293,-0.019503836,-0.011814424,-0.0077932286,-0.00006726504,-0.022549147,0.0065439586,-0.0032806308,0.0030037845,-0.011807502,-0.017662806,0.02162171,-0.022313826,0.0029466848,0.03914609,-0.038011022,-0.04061338,-0.019462308,0.02715864,0.03621152,0.022618357,-0.010644747,0.05841461,0.0056891954,0.016638475,-0.009032116,-0.025649827,-0.014492913,0.0070180586,-0.02137255,0.05622752,0.019669943,0.0073225894,0.013080996,-0.030120898,0.004259975,-0.019448465,0.012070507,0.020334374,-0.0029034275,-0.010201793,-0.033553794,0.007959336,0.015766406,0.019822208,-0.014043038,0.0155449305,-0.01702606,-0.0701529,-0.0023220498,0.0037478092,0.01684611,0.008305394,0.022770623,0.009966473,0.0063086394,0.0073364316,0.013724664,-0.04086254,0.0107070375,0.011288416,-0.03549172,-0.01882556,-0.048032865,-0.0060663987,0.030037843,-0.028598242,-0.017012216,0.036432996,0.027809229,0.015101976,0.0071080336,0.03449507,-0.010769328,-0.005045527,-0.024334807,-0.009253594,0.0018842864,-0.02917962,-0.012181246,-0.020625062,-0.0035159504,0.033609163,-0.041665398,-0.039699785,-0.03626689,-0.0067204484,-0.010070291,0.029760998,0.0060317926,0.019005511,-0.030065529,0.0010087594,0.043575637,-0.028902773,-0.017593594,-0.0013184814,-0.011759055,-0.006111386,0.0074333283,0.03632226,-0.034578126,0.04097328,0.00028484908,-0.017372116,-0.04501524,-0.04232983,0.027366275,-0.0029934025,-0.011537577,-0.030010158,-0.005138963,-0.021926241,0.017482856,-0.0013954793,0.00036098185,0.013468581,-0.0038447056,-0.027656963,0.005993726,0.00845766,0.015434192,-0.015987884,-0.011115386,0.0032079585,-0.009357411,-0.015752565,-0.005395046,0.014562125,-0.0035176806,-0.010630905,-0.03983821,-0.022493778,-0.0146867065,0.005367361,0.009378174,0.010014921,0.007848598,-0.01166908,0.00009311126,-0.032307986,0.028169129,-0.0006146857,0.014659021,-0.011800582,-0.015821777,0.018078076,0.019614574,0.022023138,-0.0024154857,0.00074662035,-0.009786523,0.013309395,-0.020292846,-0.021303337,0.010229478,-0.028681295,-0.03394138,-0.0045610457,-0.0033792574,0.004339569,0.000910998,0.0315605,-0.011454524,-0.023864167,0.00095685065,0.02131718,-0.051327337,0.002090191,0.00953044,0.013613926,-0.01369698,0.029650258,0.021164915,-0.015835619,0.0072741415,0.0025106515,-0.03543635,0.0001864388,0.0099941585,-0.023628848,0.021151071,-0.036460683,-0.04734075,-0.015337295,-0.02643884,-0.0042841993,0.030840699,0.017455172,0.014991237,0.03347074,0.017593594,-0.008914457,-0.02625889,-0.015101976,0.034522757,0.020542009,0.021829346,0.01935157,-0.011226125,0.021649396,-0.015281926,0.008367685,0.043271106,-0.044046275,0.017538225,0.015198872,0.019877577,-0.018368764,-0.013122523,-0.0073364316,0.0016636744,-0.008900614,0.02411333,0.011502972,0.02167708,-0.017538225,-0.01494971,-0.0021403695,0.015572615,-0.020791171,0.028432135,0.037429646,-0.034162857,-0.009205146,-0.027297063,0.024639336,-0.03662679,-0.012845677,-0.010444034,0.017953495,0.0012553257,0.016361628,-0.024376333,0.013745428,0.038952302,-0.020375902,-0.037180483,-0.022825994,0.025857462,-0.004394938,0.029982474,-0.0024760459,-0.022161562,-0.011475286,0.0018237262,0.0057860916,-0.015655668,0.0036682158,-0.03413517,0.028210657,-0.039229147,-0.012734938,-0.014368333,0.014188383,0.009129013,-0.008623768,0.02477776,0.004689087,-0.020320533,0.003316967,-0.041942243,0.021953925,0.026452681,0.007820914,-0.01476976,-0.004246133,-0.018742507,0.027587753,0.02126181,-0.0011714067,-0.01828571,0.030979121,0.0012008216,-0.0009819398,0.0013972096,-0.025871305,-0.0010485561,0.024528598,-0.0044814525,0.029234989,0.033802956,0.0030089752,-0.008942141,-0.0033775272,-0.00923283,-0.0018289171,-0.027324747,-0.037678808,0.023891851,-0.016292416,-0.014119171,0.042080667,0.013461661,-0.007056125,0.021275653,0.019974474,0.0068173446,0.0053465976,-0.021524815,-0.019143935,-0.024376333,0.0019085105,0.009149777,0.01286644,0.003233913,0.027407803,0.03953368,0.039312202,0.0020192491,0.012312748,0.036100782,0.01393922,0.042938888,-0.040004317,0.025137661,0.009807287,0.022646042,0.03441202,0.015752565,-0.020652749,-0.07325358,-0.021234125,0.0057860916,0.04282815,-0.0103056105,0.00008786632,0.005889909,-0.02030669,-0.0017077967,0.05287768,0.018590242,-0.02989942,-0.0071634026,-0.035048764,0.006592407,-0.017413644,0.023933379,-0.015420349,-0.034799602,0.019697627,0.010056448,0.014534441,0.021054175,-0.018479504,0.018244183,0.049693946,-0.014575968,-0.008983669,-0.04210835,0.019849893,-0.019005511,0.01756591,-0.01090083,0.034467388,0.008907536,0.04966626,-0.033886008,-0.02917962,0.026729528,-0.027186325,0.0043153446,0.030896068,0.05359748,0.0138838515,0.0040765647,-0.001714718,0.004353411,-0.016721528,-0.023435054,-0.041610025,0.030287005,-0.018604083,0.01143376,0.003292743,0.03765112,-0.0059452783,-0.011579104,0.010527087,-0.04675937,0.028487504,-0.018299554,-0.016292416,-0.0032010374,0.00071374484,-0.01512966,0.04263436,0.02180166,0.0012466743,0.0023687677,0.014825129,-0.02881972,0.027075587,0.032307986,0.011011569,-0.0052739256,-0.0023480041,0.024376333,-0.014797444,0.0132263405,0.032778624,0.018119602,0.022756781,-0.021773975,0.030896068,0.015489561,0.017109113,-0.0041250126,0.0073502744,0.07236767,0.010146423,0.027227852,0.014935868,0.040115055,0.028708981,-0.003304855,-0.0064228387,0.009613494,0.02286752,-0.015489561,-0.001763166,0.03521487,0.00079766393,0.0093020415,-0.022770623,-0.06417301,-0.0021957387,0.01720601,0.008810639,0.0015217905,-0.014894341,0.039505992,-0.02411333,-0.002197469,-0.004675245,0.014894341,-0.00009868063,0.029844051,0.033526108,0.010208714,-0.029705629,-0.042080667,-0.023199735,-0.013669295,-0.001077971,-0.042080667,-0.013565478,-0.0018271868,-0.0033982906,-0.008893693,0.008803718,0.013731586,0.015932515,0.0039450624,0.0038343237,-0.010409428,0.021829346,-0.027477013,0.009274357,0.016818425,0.01738596,0.03839861,0.005204714,-0.0038135604,-0.0051666475,0.008374606,-0.016763054,0.0020694274,0.021427918,0.037844915,0.025525246,0.03269557,0.0021092242,0.016264731,0.029733313,0.02739396,0.010949278,0.005585378,-0.0065785646,-0.013731586,-0.02614815,-0.012596515,-0.0071564815,-0.005561154,0.028930457,0.012658806,0.047257695,-0.00678966,-0.0017017408,-0.028902773,-0.018534873,-0.030203952,-0.002412025,0.022701412,-0.025317611,0.009731154,-0.014977395,0.03745733,0.018742507,-0.026992531,0.036959007,0.029622573,-0.023476582,-0.0014629606,-0.014838971,-0.0026629171,-0.02466702,0.013828482,-0.00845766,0.0056822742,-0.004768681,-0.009461229,-0.011779818,0.024030276,0.0038274026,-0.013205578,0.015586457,0.015406507,-0.033498425,0.0034086723,-0.008429975,-0.035823934,-0.0049970793,0.026494209,0.013890772,0.040779486,0.031781975,-0.014139934,-0.030037843,-0.0046579423,0.00196561,-0.02602357,-0.034107488,-0.004689087,0.0037235853,-0.015461876,0.0059833447,0.019005511,-0.00887293,-0.023573479,0.027435487,0.029096566,-0.023393529,-0.037069745,0.013731586,-0.026134308,0.0015036225,-0.013544714,-0.0055057844,-0.039810523,0.05179798,-0.00034216495,-0.007883203,0.054815605,-0.01691532,0.01310176,-0.03729122,0.022064665,-0.0065681827,0.028847404,0.035740882,-0.020791171,-0.048005182,0.0019085105,0.0053569796,-0.04180382,0.04459997,-0.01065859,-0.006450523,-0.01012566,0.016887635,0.02382264,-0.021690922,-0.011246889,-0.0071772453,0.13177893,0.0017943113,0.00086601044,-0.003346382,0.018493345,-0.009834971,-0.0054815602,-0.022327669,-0.0043914774,0.017053744,-0.0256083,0.0077586225,-0.008921378,0.013662374,-0.014326805,0.0063120998,-0.002275332,-0.0582485,0.0060525564,-0.046953164,-0.017828913,0.022410722,0.021607868,0.018368764,0.0058518425,-0.03405212,-0.011198441,-0.036100782,0.03197577,0.021109544,0.00013258352,-0.0059833447,-0.029428782,0.00816005,-0.0120774275,-0.03311084,-0.009911104,0.039395254,-0.0072533777,-0.018424133,0.0054573365,0.0130256275,0.008672216,-0.009661943,0.029567204,0.008976747,0.0027667345,0.0018635229,0.014575968,0.026909478,-0.022424566,-0.0003177246,0.00054158096,-0.008506108,0.014022275,-0.05293305,0.012243535,-0.022313826,0.03477192,-0.021012649,-0.0046475604,-0.018354923,0.030757645,0.0076201996,-0.014216067,-0.02465318,-0.0077793864,-0.0052254773,0.012949495,-0.016693844,-0.00019963227,0.0010528818,-0.008769113,-0.032778624,-0.015378823,-0.030951437,0.043575637,0.014908183,-0.029567204,-0.0094473865,0.020417428,0.019088564,0.031588186,-0.0047340747,-0.007004216,0.0034138632,-0.0075094607,-0.03291705,-0.017136797,-0.021109544,0.013807719,0.0026871413,0.0053500584,0.03311084,0.0037201247,0.0005913268,-0.009758838,0.0060317926,-0.014783602,-0.041859187,0.030591536,-0.005727262,-0.0140845645,0.04349258,0.012520382,-0.020514324,-0.030979121,-0.022133876,0.01655542,0.010492482,0.018050391,-0.0043810955,0.014043038,-0.021967769,0.0134270545,-0.0050697513,-0.047202326,0.018022707,-0.013260947,-0.021068018,-0.008928299,0.017981179,-0.0006622687,0.020860383,-0.009744996,-0.0057099587,-0.012797229,0.017607436,-0.0036128466,0.0006912511,0.0095581245,-0.049029514,0.0059487387,-0.013773113,0.018216498,-0.0039346805,0.019282358,-0.04462765,0.03025932,0.0211926,0.026660316,0.008007784,-0.02185703,-0.007737859,0.0054227305,-0.009613494,0.005270465,0.0060352534,-0.003733967,-0.028169129,-0.041250125,0.0027321288,-0.012783387,-0.0047548385,0.016583104,-0.0039589047,-0.010354059,-0.0036682158,-0.009987237,0.005938357,-0.014465229,-0.0018444897,0.006921162,0.044738393,0.022756781,-0.010644747,-0.007004216,0.026341943,0.016292416,-0.00070682366,-0.01733059,-0.04354795,0.002566021,-0.0062844153,0.023739586,-0.013946142,-0.010277926,0.0071980087,0.0009888611,-0.0026335022,0.012741859,-0.0050732116,-0.02066659,0.00768249,-0.000069319765,0.011309179,0.004014274,-0.01166908,-0.020763487,-0.03828787,0.031200599,-0.012907967,0.05215788,0.007557909,-0.010575536,0.018548714,-0.031781975,-0.039589047,-0.009980315,-0.010831619,0.0052739256,-0.018368764,-0.006945386,0.02917962,0.0068346476,0.007035361,-0.030287005,0.012174324,-0.014091486,0.0066131703,0.013392448,-0.0050662905,-0.012728017,0.009744996,0.022299984,0.0057618674,0.019614574,0.0050766724,-0.031532813,-0.0019915644,0.009551204,0.004083486,0.02555293,-0.02048664,-0.0008629824,-0.012991021,0.03363685,-0.040059686,0.0020867304,-0.04537514,0.0041284733,0.03363685,0.0010476909,-0.035685513,-0.023255104,0.0030037845,-0.015157345,0.0039554443,-0.0014205686,0.00857532,-0.015558773,0.0056788134,-0.032833993,0.028902773,0.028072234,-0.0054815602,0.011869793,0.009129013,0.0069246227,-0.009101328,0.011890557,-0.0067446725,-0.023781113,0.0074886973,0.002822104,-0.010153345,0.036737528,-0.03233567,-0.0065578013,-0.020292846,-0.026951006,-0.0051804897,0.0034138632,0.0015442843,0.047672965,0.011703685,0.01512966,0.00756483,-0.02840445,-0.0021507512,-0.031006806,-0.005931436,0.0035817013,0.024694707,0.0150881335,0.020029843,0.017884282,0.0042184484,0.015711037,-0.031477444,0.0073502744,-0.033526108,-0.0004823185,-0.011544499,-0.009398938,0.0159602,0.0048136683,0.020403586,-0.0074333283,0.006575104,-0.015046607,-0.0055992203,0.006682382,0.019310042,0.0121674035,0.006277494,0.005311992,-0.030370058,-0.05235167,0.0040384983,-0.0019984855,-0.030480798,0.016153993,-0.009717312,-0.0076963324,-0.027643122,0.037900284,-0.026577262,0.0058760666,0.00857532,-0.009343569,-0.012430407,-0.0062878756,-0.002031361,-0.016389312,-0.0050040004,-0.00422883,0.0071426393,-0.017607436,-0.008658374,-0.033332318,0.025857462,-0.018728664,-0.02156634,-0.0046717846,0.032529462,-0.015337295,-0.0030055146,0.0020815395,-0.002733859,-0.016333943,0.017053744,-0.023559636,-0.0035540168,0.05675353,0.0005489347,-0.016209362,-0.010395586,-0.0076063573,-0.030951437,-0.021843188,-0.0029812907,0.001286471,0.00834,0.0018825561,0.029511835,0.0072395355,0.0018098839,0.022549147,0.021247968,-0.033221576,-0.020638905,0.041139387,-0.034273595,-0.030480798,-0.014866657,0.03585162,0.0014093217,-0.039589047,0.00032205033,0.026881794,0.0113645485,0.023559636,-0.0035955438,0.0029812907,0.0077447803,-0.018507188,0.008360764,-0.0052393195,-0.0010771059,-0.05758407,0.03513182,0.00065361726,-0.03222493,0.007890125,0.0049140253,-0.0109077515,0.0033100457,-0.051493447,-0.013641611,-0.00038152907,-0.023545794,0.036654476,-0.0028965063,-0.023933379,0.00607678,-0.0015598569,-0.022410722,-0.019919105]
        },
        "options": {
            "limit": 10
        }
    }
}